<?xml version="1.0"?>
<opencv_storage>
<stage0>
  <maxWeakCount>21</maxWeakCount>
  <stageThreshold>-1.2530480623245239e+00</stageThreshold>
  <weakClassifiers>
    <_>
      <internalNodes>
        0 -1 78117 -4.6062292531132698e-03</internalNodes>
      <leafValues>
        6.2974202632904053e-01 -3.0947053432464600e-01</leafValues></_>
    <_>
      <internalNodes>
        0 -1 15398 6.3358335755765438e-03</internalNodes>
      <leafValues>
        -3.0218723416328430e-01 4.4853866100311279e-01</leafValues></_>
    <_>
      <internalNodes>
        0 -1 3882 1.0547878220677376e-02</internalNodes>
      <leafValues>
        -1.4908450841903687e-01 7.1442133188247681e-01</leafValues></_>
    <_>
      <internalNodes>
        0 -1 76284 5.6221280246973038e-03</internalNodes>
      <leafValues>
        -1.9045804440975189e-01 4.9293601512908936e-01</leafValues></_>
    <_>
      <internalNodes>
        0 -1 76126 -3.1491206027567387e-03</internalNodes>
      <leafValues>
        4.1036817431449890e-01 -2.2201547026634216e-01</leafValues></_>
    <_>
      <internalNodes>
        0 -1 76128 -5.3851003758609295e-03</internalNodes>
      <leafValues>
        4.9346876144409180e-01 -1.6014695167541504e-01</leafValues></_>
    <_>
      <internalNodes>
        0 -1 11399 -5.9535568580031395e-03</internalNodes>
      <leafValues>
        3.2762029767036438e-01 -2.1678666770458221e-01</leafValues></_>
    <_>
      <internalNodes>
        0 -1 16735 -4.8749893903732300e-03</internalNodes>
      <leafValues>
        3.7769261002540588e-01 -1.6506941616535187e-01</leafValues></_>
    <_>
      <internalNodes>
        0 -1 17819 5.9598330408334732e-03</internalNodes>
      <leafValues>
        -1.0899172723293304e-01 6.1416083574295044e-01</leafValues></_>
    <_>
      <internalNodes>
        0 -1 75006 -5.4383487440645695e-03</internalNodes>
      <leafValues>
        3.7235963344573975e-01 -1.1147324740886688e-01</leafValues></_>
    <_>
      <internalNodes>
        0 -1 76025 -3.4926708322018385e-03</internalNodes>
      <leafValues>
        4.4724476337432861e-01 -1.2210682034492493e-01</leafValues></_>
    <_>
      <internalNodes>
        0 -1 77240 -4.5263115316629410e-03</internalNodes>
      <leafValues>
        4.1155350208282471e-01 -1.2716098129749298e-01</leafValues></_>
    <_>
      <internalNodes>
        0 -1 27944 1.6647122101858258e-03</internalNodes>
      <leafValues>
        -1.5982712805271149e-01 2.8113424777984619e-01</leafValues></_>
    <_>
      <internalNodes>
        0 -1 22946 1.4934185892343521e-03</internalNodes>
      <leafValues>
        -1.4142279326915741e-01 3.0245825648307800e-01</leafValues></_>
    <_>
      <internalNodes>
        0 -1 59153 -9.1432873159646988e-03</internalNodes>
      <leafValues>
        -6.0882467031478882e-01 8.3268798887729645e-02</leafValues></_>
    <_>
      <internalNodes>
        0 -1 75970 5.1348330453038216e-04</internalNodes>
      <leafValues>
        -1.9931854307651520e-01 2.3907646536827087e-01</leafValues></_>
    <_>
      <internalNodes>
        0 -1 70575 -2.4739564396440983e-03</internalNodes>
      <leafValues>
        3.1798514723777771e-01 -1.3424152135848999e-01</leafValues></_>
    <_>
      <internalNodes>
        0 -1 71082 -8.0634057521820068e-03</internalNodes>
      <leafValues>
        -6.0363423824310303e-01 6.5313696861267090e-02</leafValues></_>
    <_>
      <internalNodes>
        0 -1 22368 3.7641134113073349e-03</internalNodes>
      <leafValues>
        -9.1606445610523224e-02 5.0240665674209595e-01</leafValues></_>
    <_>
      <internalNodes>
        0 -1 77461 -6.6345417872071266e-04</internalNodes>
      <leafValues>
        1.9020950794219971e-01 -2.2216072678565979e-01</leafValues></_>
    <_>
      <internalNodes>
        0 -1 7794 -9.9544487893581390e-03</internalNodes>
      <leafValues>
        2.4326324462890625e-01 -1.7722222208976746e-01</leafValues></_></weakClassifiers></stage0>
</opencv_storage>
