<?xml version="1.0"?>
<opencv_storage>
<stage4>
  <maxWeakCount>50</maxWeakCount>
  <stageThreshold>-9.7478604316711426e-01</stageThreshold>
  <weakClassifiers>
    <_>
      <internalNodes>
        0 -1 70243 2.1515734493732452e-02</internalNodes>
      <leafValues>
        -2.3933209478855133e-01 2.7982646226882935e-01</leafValues></_>
    <_>
      <internalNodes>
        0 -1 77184 -1.8435692414641380e-02</internalNodes>
      <leafValues>
        6.0308611392974854e-01 -7.6029889285564423e-02</leafValues></_>
    <_>
      <internalNodes>
        0 -1 76126 2.1675352007150650e-02</internalNodes>
      <leafValues>
        -9.8011925816535950e-02 6.1786520481109619e-01</leafValues></_>
    <_>
      <internalNodes>
        0 -1 77321 3.4930665045976639e-02</internalNodes>
      <leafValues>
        -5.4676197469234467e-02 5.2880114316940308e-01</leafValues></_>
    <_>
      <internalNodes>
        0 -1 4391 1.5668477863073349e-02</internalNodes>
      <leafValues>
        -5.5142201483249664e-02 5.3135931491851807e-01</leafValues></_>
    <_>
      <internalNodes>
        0 -1 49863 -7.5516444630920887e-03</internalNodes>
      <leafValues>
        -4.2018157243728638e-01 6.5825119614601135e-02</leafValues></_>
    <_>
      <internalNodes>
        0 -1 677 2.6385607197880745e-03</internalNodes>
      <leafValues>
        -1.6584168374538422e-01 1.7922639846801758e-01</leafValues></_>
    <_>
      <internalNodes>
        0 -1 78139 3.4145833924412727e-03</internalNodes>
      <leafValues>
        1.0547813028097153e-02 -5.6090635061264038e-01</leafValues></_>
    <_>
      <internalNodes>
        0 -1 49935 4.0947999805212021e-03</internalNodes>
      <leafValues>
        -1.0643821954727173e-01 2.4472746253013611e-01</leafValues></_>
    <_>
      <internalNodes>
        0 -1 78069 4.2346939444541931e-03</internalNodes>
      <leafValues>
        4.2628601193428040e-02 -5.6092560291290283e-01</leafValues></_>
    <_>
      <internalNodes>
        0 -1 38889 -3.6458171904087067e-02</internalNodes>
      <leafValues>
        6.4401495456695557e-01 -4.2663861066102982e-02</leafValues></_>
    <_>
      <internalNodes>
        0 -1 73154 -3.6582518368959427e-03</internalNodes>
      <leafValues>
        2.4874302744865417e-01 -1.0029984265565872e-01</leafValues></_>
    <_>
      <internalNodes>
        0 -1 17275 -6.2306690961122513e-03</internalNodes>
      <leafValues>
        2.4753725528717041e-01 -1.0521301627159119e-01</leafValues></_>
    <_>
      <internalNodes>
        0 -1 9623 -7.5528295710682869e-03</internalNodes>
      <leafValues>
        2.6740297675132751e-01 -1.0937145352363586e-01</leafValues></_>
    <_>
      <internalNodes>
        0 -1 11785 -4.6801893040537834e-03</internalNodes>
      <leafValues>
        1.6270570456981659e-01 -1.6413599252700806e-01</leafValues></_>
    <_>
      <internalNodes>
        0 -1 18787 2.8109266422688961e-03</internalNodes>
      <leafValues>
        7.4974104762077332e-02 -4.4557392597198486e-01</leafValues></_>
    <_>
      <internalNodes>
        0 -1 75020 -6.1987561639398336e-04</internalNodes>
      <leafValues>
        2.0185647904872894e-01 -1.4864237606525421e-01</leafValues></_>
    <_>
      <internalNodes>
        0 -1 744 -1.1626256164163351e-03</internalNodes>
      <leafValues>
        -3.1332248449325562e-01 9.5620542764663696e-02</leafValues></_>
    <_>
      <internalNodes>
        0 -1 78360 -7.8835887834429741e-03</internalNodes>
      <leafValues>
        3.5396489500999451e-01 -7.3190033435821533e-02</leafValues></_>
    <_>
      <internalNodes>
        0 -1 77602 2.7953623794019222e-03</internalNodes>
      <leafValues>
        4.7109119594097137e-02 -5.0794112682342529e-01</leafValues></_>
    <_>
      <internalNodes>
        0 -1 28657 4.2857723310589790e-03</internalNodes>
      <leafValues>
        -7.6731376349925995e-02 3.2212722301483154e-01</leafValues></_>
    <_>
      <internalNodes>
        0 -1 46468 -1.6968500567600131e-03</internalNodes>
      <leafValues>
        1.5935258567333221e-01 -1.5963172912597656e-01</leafValues></_>
    <_>
      <internalNodes>
        0 -1 76641 8.5048135370016098e-03</internalNodes>
      <leafValues>
        3.3825814723968506e-02 -7.2670382261276245e-01</leafValues></_>
    <_>
      <internalNodes>
        0 -1 55010 -5.1653608679771423e-03</internalNodes>
      <leafValues>
        -5.3600633144378662e-01 3.9336960762739182e-02</leafValues></_>
    <_>
      <internalNodes>
        0 -1 27973 6.6148545593023300e-03</internalNodes>
      <leafValues>
        -1.0349216312170029e-01 2.3290534317493439e-01</leafValues></_>
    <_>
      <internalNodes>
        0 -1 18784 -1.1753781000152230e-03</internalNodes>
      <leafValues>
        2.2049693763256073e-01 -1.1702048778533936e-01</leafValues></_>
    <_>
      <internalNodes>
        0 -1 71218 3.3941031433641911e-03</internalNodes>
      <leafValues>
        -1.2686903774738312e-01 2.0920881628990173e-01</leafValues></_>
    <_>
      <internalNodes>
        0 -1 77364 4.4027399271726608e-03</internalNodes>
      <leafValues>
        -7.7397115528583527e-02 2.9628810286521912e-01</leafValues></_>
    <_>
      <internalNodes>
        0 -1 77364 -2.7845171280205250e-03</internalNodes>
      <leafValues>
        3.0846059322357178e-01 -1.4106787741184235e-01</leafValues></_>
    <_>
      <internalNodes>
        0 -1 29866 -1.3237109407782555e-02</internalNodes>
      <leafValues>
        -8.0330723524093628e-01 3.3361069858074188e-02</leafValues></_>
    <_>
      <internalNodes>
        0 -1 29271 2.4666704703122377e-03</internalNodes>
      <leafValues>
        -9.3612544238567352e-02 2.6198345422744751e-01</leafValues></_>
    <_>
      <internalNodes>
        0 -1 67038 2.8954190202057362e-03</internalNodes>
      <leafValues>
        5.2438691258430481e-02 -5.3251171112060547e-01</leafValues></_>
    <_>
      <internalNodes>
        0 -1 36584 -6.4574763178825378e-02</internalNodes>
      <leafValues>
        4.9438440799713135e-01 -5.5969271808862686e-02</leafValues></_>
    <_>
      <internalNodes>
        0 -1 76094 -2.3391688591800630e-04</internalNodes>
      <leafValues>
        -1.8503321707248688e-01 1.3754704594612122e-01</leafValues></_>
    <_>
      <internalNodes>
        0 -1 35692 8.8947869837284088e-02</internalNodes>
      <leafValues>
        -7.8759528696537018e-02 3.4260711073875427e-01</leafValues></_>
    <_>
      <internalNodes>
        0 -1 65653 6.1956522986292839e-03</internalNodes>
      <leafValues>
        6.3771620392799377e-02 -4.0095543861389160e-01</leafValues></_>
    <_>
      <internalNodes>
        0 -1 74480 1.4945577830076218e-02</internalNodes>
      <leafValues>
        -5.4574776440858841e-02 4.9831554293632507e-01</leafValues></_>
    <_>
      <internalNodes>
        0 -1 14135 -1.4934263890609145e-03</internalNodes>
      <leafValues>
        1.8476776778697968e-01 -1.4476072788238525e-01</leafValues></_>
    <_>
      <internalNodes>
        0 -1 76639 -2.4222470819950104e-03</internalNodes>
      <leafValues>
        -3.3032017946243286e-01 7.9223796725273132e-02</leafValues></_>
    <_>
      <internalNodes>
        0 -1 76037 -1.3323435559868813e-02</internalNodes>
      <leafValues>
        5.4777836799621582e-01 -5.2039138972759247e-02</leafValues></_>
    <_>
      <internalNodes>
        0 -1 77640 -2.2984764073044062e-03</internalNodes>
      <leafValues>
        -2.8740319609642029e-01 9.5196589827537537e-02</leafValues></_>
    <_>
      <internalNodes>
        0 -1 12295 -3.7384631577879190e-03</internalNodes>
      <leafValues>
        -2.7821770310401917e-01 8.0126121640205383e-02</leafValues></_>
    <_>
      <internalNodes>
        0 -1 77035 -7.0087937638163567e-03</internalNodes>
      <leafValues>
        2.4867951869964600e-01 -9.9795736372470856e-02</leafValues></_>
    <_>
      <internalNodes>
        0 -1 59031 -1.1561822611838579e-03</internalNodes>
      <leafValues>
        1.9361017644405365e-01 -1.2116343528032303e-01</leafValues></_>
    <_>
      <internalNodes>
        0 -1 77037 -2.8543861582875252e-02</internalNodes>
      <leafValues>
        7.4524605274200439e-01 -3.0972868204116821e-02</leafValues></_>
    <_>
      <internalNodes>
        0 -1 7492 1.3135161250829697e-02</internalNodes>
      <leafValues>
        5.1685716956853867e-02 -5.1611357927322388e-01</leafValues></_>
    <_>
      <internalNodes>
        0 -1 76441 7.9395677894353867e-03</internalNodes>
      <leafValues>
        2.8303751721978188e-02 -7.3468482494354248e-01</leafValues></_>
    <_>
      <internalNodes>
        0 -1 15459 5.5496324785053730e-04</internalNodes>
      <leafValues>
        -1.4909219741821289e-01 1.5856952965259552e-01</leafValues></_>
    <_>
      <internalNodes>
        0 -1 6947 4.1434811428189278e-03</internalNodes>
      <leafValues>
        -1.1692234128713608e-01 2.0130328834056854e-01</leafValues></_>
    <_>
      <internalNodes>
        0 -1 72472 8.4088640287518501e-03</internalNodes>
      <leafValues>
        3.5217724740505219e-02 -6.5669673681259155e-01</leafValues></_></weakClassifiers></stage4>
</opencv_storage>
